svm_type epsilon_svr
kernel_type rbf
gamma 2
nr_class 2
total_sv 10
rho -15.672
SV
-122.6041734980269 1:-0.178169 
0.658760057023199 1:-1.228928 
-128 1:-0.234652 
128 1:0.193873 
5.318951324908933 1:-1.756033 
128 1:-0.12996 
128 1:-0.207611 
-11.69977170114504 1:0.338334 
0.326233817239755 1:0.651899 
-128 1:0.245169 
