svm_type epsilon_svr
kernel_type polynomial
degree 2
gamma 256
coef0 0
nr_class 2
total_sv 48
rho -10.8384
SV
-512 1:0.322497 
-512 1:0.407739 
-512 1:-0.136472 
-512 1:0.68861 
-512 1:-0.178169 
512 1:-0.198081 
-512 1:0.01897 
-512 1:0.440397 
-377.8755496638635 1:-1.446457 
512 1:-1.228928 
512 1:-0.285269 
512 1:-0.539657 
-512 1:0.665933 
-512 1:0.729883 
512 1:-0.29625 
512 1:0.208053 
-512 1:-0.562483 
-512 1:0.694861 
512 1:0.226915 
512 1:0.628276 
-512 1:-0.611727 
-512 1:-0.234652 
512 1:0.365538 
512 1:-0.082798 
512 1:0.193873 
507.5884801120226 1:-1.756033 
512 1:0.375486 
512 1:0.319523 
512 1:-0.00637 
512 1:-0.12996 
-512 1:-0.625791 
512 1:-0.207611 
512 1:0.416911 
512 1:0.361731 
512 1:0.743795 
-512 1:0.672089 
512 1:0.379516 
512 1:0.414232 
-512 1:0.347735 
-512 1:0.855492 
-512 1:0.876057 
382.2870695520646 1:0.850227 
-512 1:0.581653 
-512 1:0.338334 
512 1:0.651899 
-512 1:0.382197 
-512 1:0.245169 
-512 1:0.561574 
